<?xml version="1.0" encoding="UTF-8"?>
<BIF VERSION="0.3"  xmlns="http://www.cs.ubc.ca/labs/lci/fopi/ve/XMLBIFv0_3"
	xmlns:xsi="http://www.w3.org/2001/XMLSchema-instance"
	xsi:schemaLocation="http://www.cs.ubc.ca/labs/lci/fopi/ve/XMLBIFv0_3 http://www.cs.ubc.ca/labs/lci/fopi/ve/XMLBIFv0_3/XMLBIFv0_3.xsd">
<NETWORK>
<NAME>Untitled</NAME>
<PROPERTY>detailed = </PROPERTY>
<PROPERTY>short = </PROPERTY>

<VARIABLE TYPE="nature">
	<NAME>S1</NAME>
	<OUTCOME>T</OUTCOME>
	<OUTCOME>F</OUTCOME>
	<PROPERTY>position = (7093.2587890625, 5096.47119140625)</PROPERTY>
</VARIABLE>

<VARIABLE TYPE="nature">
	<NAME>S2</NAME>
	<OUTCOME>T</OUTCOME>
	<OUTCOME>F</OUTCOME>
	<PROPERTY>position = (7371.44775390625, 5098.0986328125)</PROPERTY>
</VARIABLE>

<VARIABLE TYPE="nature">
	<NAME>E</NAME>
	<OUTCOME>T</OUTCOME>
	<OUTCOME>F</OUTCOME>
	<PROPERTY>position = (7103.67626953125, 5271.04052734375)</PROPERTY>
</VARIABLE>

<VARIABLE TYPE="nature">
	<NAME>N</NAME>
	<OUTCOME>T</OUTCOME>
	<OUTCOME>F</OUTCOME>
	<PROPERTY>position = (7361.44775390625, 5243.2490234375)</PROPERTY>
</VARIABLE>

<VARIABLE TYPE="nature">
	<NAME>Asia</NAME>
	<OUTCOME>T</OUTCOME>
	<OUTCOME>F</OUTCOME>
	<PROPERTY>position = (7484.17138671875, 5315.8447265625)</PROPERTY>
</VARIABLE>

<VARIABLE TYPE="nature">
	<NAME>TBC</NAME>
	<OUTCOME>T</OUTCOME>
	<OUTCOME>F</OUTCOME>
	<PROPERTY>position = (7379.67626953125, 5335.8935546875)</PROPERTY>
</VARIABLE>

<VARIABLE TYPE="nature">
	<NAME>Xray</NAME>
	<OUTCOME>T</OUTCOME>
	<OUTCOME>F</OUTCOME>
	<PROPERTY>position = (7303.91357421875, 5493.6259765625)</PROPERTY>
</VARIABLE>

<VARIABLE TYPE="nature">
	<NAME>Smoke</NAME>
	<OUTCOME>T</OUTCOME>
	<OUTCOME>F</OUTCOME>
	<PROPERTY>position = (7596.2490234375, 5328.0361328125)</PROPERTY>
</VARIABLE>

<VARIABLE TYPE="nature">
	<NAME>LC</NAME>
	<OUTCOME>T</OUTCOME>
	<OUTCOME>F</OUTCOME>
	<PROPERTY>position = (7486.52685546875, 5369.13037109375)</PROPERTY>
</VARIABLE>

<VARIABLE TYPE="nature">
	<NAME>Dysp</NAME>
	<OUTCOME>T</OUTCOME>
	<OUTCOME>F</OUTCOME>
	<PROPERTY>position = (7454.4814453125, 5521.744140625)</PROPERTY>
</VARIABLE>

<VARIABLE TYPE="nature">
	<NAME>Bron</NAME>
	<OUTCOME>T</OUTCOME>
	<OUTCOME>F</OUTCOME>
	<PROPERTY>position = (7551.8134765625, 5440.9775390625)</PROPERTY>
</VARIABLE>

<VARIABLE TYPE="nature">
	<NAME>Mal</NAME>
	<OUTCOME>T</OUTCOME>
	<OUTCOME>F</OUTCOME>
	<PROPERTY>position = (7469.10107421875, 5078.78857421875)</PROPERTY>
</VARIABLE>

<VARIABLE TYPE="nature">
	<NAME>Men</NAME>
	<OUTCOME>T</OUTCOME>
	<OUTCOME>F</OUTCOME>
	<PROPERTY>position = (7618.4580078125, 5077.69775390625)</PROPERTY>
</VARIABLE>

<VARIABLE TYPE="nature">
	<NAME>HBT</NAME>
	<OUTCOME>T</OUTCOME>
	<OUTCOME>F</OUTCOME>
	<PROPERTY>position = (7562.07080078125, 5185.1201171875)</PROPERTY>
</VARIABLE>

<VARIABLE TYPE="nature">
	<NAME>F</NAME>
	<OUTCOME>T</OUTCOME>
	<OUTCOME>F</OUTCOME>
	<PROPERTY>position = (7578.77099609375, 5257.31591796875)</PROPERTY>
</VARIABLE>

<VARIABLE TYPE="nature">
	<NAME>TFMov</NAME>
	<OUTCOME>T</OUTCOME>
	<OUTCOME>F</OUTCOME>
	<PROPERTY>position = (7955.0693359375, 5426.2119140625)</PROPERTY>
</VARIABLE>

<VARIABLE TYPE="nature">
	<NAME>TUN</NAME>
	<OUTCOME>T</OUTCOME>
	<OUTCOME>F</OUTCOME>
	<PROPERTY>position = (8068.39013671875, 5314.54248046875)</PROPERTY>
</VARIABLE>

<VARIABLE TYPE="nature">
	<NAME>TFNobelpreis</NAME>
	<OUTCOME>T</OUTCOME>
	<OUTCOME>F</OUTCOME>
	<PROPERTY>position = (8054.89892578125, 5134.49951171875)</PROPERTY>
</VARIABLE>

<VARIABLE TYPE="nature">
	<NAME>NoBeerAtBerg</NAME>
	<OUTCOME>T</OUTCOME>
	<OUTCOME>F</OUTCOME>
	<PROPERTY>position = (7734.2353515625, 5321.81787109375)</PROPERTY>
</VARIABLE>

<VARIABLE TYPE="nature">
	<NAME>zombieapocalypse</NAME>
	<OUTCOME>T</OUTCOME>
	<OUTCOME>F</OUTCOME>
	<PROPERTY>position = (7842.7333984375, 5135.79931640625)</PROPERTY>
</VARIABLE>

<DEFINITION>
	<FOR>S1</FOR>
	<TABLE>0.5 0.5</TABLE>
</DEFINITION>

<DEFINITION>
	<FOR>S2</FOR>
	<GIVEN>S1</GIVEN>
	<TABLE>0.5 0.5 0.5 0.5</TABLE>
</DEFINITION>

<DEFINITION>
	<FOR>E</FOR>
	<GIVEN>S1</GIVEN>
	<GIVEN>S2</GIVEN>
	<TABLE>0.5 0.5 0.5 0.5 0.5 0.5 0.5 0.5</TABLE>
</DEFINITION>

<DEFINITION>
	<FOR>N</FOR>
	<GIVEN>S1</GIVEN>
	<GIVEN>S2</GIVEN>
	<GIVEN>E</GIVEN>
	<TABLE>0.5 0.5 0.5 0.5 0.5 0.5 0.5 0.5 0.5 0.5 0.5 0.5 0.5 0.5 0.5 0.5</TABLE>
</DEFINITION>

<DEFINITION>
	<FOR>Asia</FOR>
	<TABLE>0.05 0.95</TABLE>
</DEFINITION>

<DEFINITION>
	<FOR>TBC</FOR>
	<GIVEN>Asia</GIVEN>
	<TABLE>0.01 0.99 0.001 0.999</TABLE>
</DEFINITION>

<DEFINITION>
	<FOR>Xray</FOR>
	<GIVEN>TBC</GIVEN>
	<GIVEN>LC</GIVEN>
	<TABLE>0.98 0.02 0.94 0.06 0.92 0.08 0.02 0.98</TABLE>
</DEFINITION>

<DEFINITION>
	<FOR>Smoke</FOR>
	<TABLE>0.3 0.7</TABLE>
</DEFINITION>

<DEFINITION>
	<FOR>LC</FOR>
	<GIVEN>Smoke</GIVEN>
	<TABLE>0.2 0.8 0.08 0.92</TABLE>
</DEFINITION>

<DEFINITION>
	<FOR>Dysp</FOR>
	<GIVEN>TBC</GIVEN>
	<GIVEN>LC</GIVEN>
	<GIVEN>Bron</GIVEN>
	<TABLE>0.99 0.01 0.97 0.03 0.98 0.02 0.9 0.1 0.98 0.02 0.92 0.08 0.95 0.05 0.07 0.93</TABLE>
</DEFINITION>

<DEFINITION>
	<FOR>Bron</FOR>
	<GIVEN>Smoke</GIVEN>
	<TABLE>0.4 0.6 0.1 0.9</TABLE>
</DEFINITION>

<DEFINITION>
	<FOR>Mal</FOR>
	<TABLE>0.5 0.5</TABLE>
</DEFINITION>

<DEFINITION>
	<FOR>Men</FOR>
	<TABLE>0.5 0.5</TABLE>
</DEFINITION>

<DEFINITION>
	<FOR>HBT</FOR>
	<GIVEN>Mal</GIVEN>
	<GIVEN>Men</GIVEN>
	<TABLE>0.95 0.05 0.9 0.1 0.9 0.1 0.5 0.5</TABLE>
</DEFINITION>

<DEFINITION>
	<FOR>F</FOR>
	<GIVEN>HBT</GIVEN>
	<TABLE>0.95 0.05 0.2 0.8</TABLE>
</DEFINITION>

<DEFINITION>
	<FOR>TFMov</FOR>
	<GIVEN>TUN</GIVEN>
	<GIVEN>NoBeerAtBerg</GIVEN>
	<TABLE>1.0 0.0 0.1 0.9 1.0 0.0 0.01 0.99</TABLE>
</DEFINITION>

<DEFINITION>
	<FOR>TUN</FOR>
	<GIVEN>TFNobelpreis</GIVEN>
	<GIVEN>zombieapocalypse</GIVEN>
	<TABLE>0.0 1.0 0.0 1.0 0.0 1.0 0.2 0.8</TABLE>
</DEFINITION>

<DEFINITION>
	<FOR>TFNobelpreis</FOR>
	<TABLE>0.01 0.99</TABLE>
</DEFINITION>

<DEFINITION>
	<FOR>NoBeerAtBerg</FOR>
	<GIVEN>TFNobelpreis</GIVEN>
	<GIVEN>zombieapocalypse</GIVEN>
	<TABLE>1.0 0.0 1.0E-4 0.9999 1.0 0.0 0.001 0.999</TABLE>
</DEFINITION>

<DEFINITION>
	<FOR>zombieapocalypse</FOR>
	<TABLE>0.00666 0.99334</TABLE>
</DEFINITION>
</NETWORK>
</BIF>
